
#ifndef __PARAMS_H__
#define __PARAMS_H__


double param_weights0 [20*64] =
{
	  7.95193050e-02,  -1.34784725e-01,   4.65593301e-02,
         -3.94741658e-01,  -2.38327433e-01,  -2.80926404e-01,
         -3.61893846e-01,  -9.15040848e-03,  -4.41413582e-03,
          4.35656065e-02,  -1.75798306e-01,  -1.39114025e-01,
         -3.28497318e-01,   5.78578220e-02,  -3.37296264e-02,
          3.07400368e-02,   1.12684134e-01,   2.31621498e-01,
          3.10650218e-01,   4.37247106e-01,   2.50685824e-03,
          2.46737160e-01,   2.36426307e-01,   7.98854900e-03,
          1.55314626e-01,  -1.35774371e-01,  -2.44874426e-02,
          4.95041675e-02,  -1.89368113e-01,  -1.78516982e-01,
          8.66302483e-02,  -8.63433370e-02,   2.50839063e-02,
          1.90093837e-01,  -6.21477822e-02,  -1.10719781e-01,
          1.66915173e-01,  -1.71593777e-01,  -2.99360821e-01,
          1.33756200e-01,  -1.65436736e-01,   7.02254115e-02,
          4.63124318e-01,   5.80096095e-01,  -2.71875180e-02,
         -1.14980366e-01,  -1.06919293e-01,  -4.87871640e-02,
         -4.46859968e-02,  -1.32705032e-01,   3.08535968e-01,
          4.89394770e-02,   2.52443589e-01,   2.94305477e-01,
         -7.94853239e-02,   2.54444091e-01,  -3.39809181e-02,
         -4.14042165e-02,  -2.36321902e-01,  -2.06214001e-02,
          1.07544336e-01,   1.29454290e-01,   2.74376889e-01,
          2.37839044e-01 ,
         -1.11183766e-01,  -9.17080026e-02,   1.46454642e-01,
          1.42522715e-01,  -1.76381235e-02,  -1.29469612e-01,
          1.72487782e-01,  -6.62393871e-02,   8.53345232e-02,
         -5.60330629e-02,   1.26222982e-02,  -2.62736721e-02,
         -1.60541187e-02,  -1.89441508e-01,  -1.29136689e-01,
         -6.73372196e-02,   7.70376303e-02,   1.16130676e-03,
         -3.96580655e-02,   5.89839420e-02,  -5.80866363e-02,
         -1.69451884e-01,  -1.75100221e-01,  -2.30863905e-01,
         -5.47845928e-02,   2.69228006e-01,   8.78102511e-02,
         -4.84026758e-02,  -3.40430629e-02,  -1.51209534e-01,
          3.19233252e-01,  -2.01886328e-01,  -2.45568306e-02,
          5.50315111e-01,   3.13582049e-01,  -3.46852106e-01,
          1.88206574e-02,   2.31159668e-01,   2.30940379e-01,
         -1.21836062e-01,  -1.36196917e-01,  -8.39380243e-05,
         -6.39125935e-02,   1.67641390e-01,   3.21462811e-01,
         -9.55484003e-02,  -4.70019730e-02,   1.55726525e-01,
         -2.23306386e-01,  -1.14869358e-01,   4.14694827e-02,
          3.61123914e-01,  -2.74598790e-01,  -1.38236270e-01,
         -2.09752907e-01,   1.32869598e-01,   6.31002771e-02,
          1.31090118e-01,   2.18477224e-02,   5.49605210e-02,
         -2.01591354e-01,   5.87388845e-02,   1.97343866e-01,
          2.17987937e-01,
         -3.79046865e-02,  -1.39319470e-01,   2.38556567e-02,
          1.46778736e-01,  -9.09631977e-02,  -1.95523147e-01,
          8.00404242e-02,   5.07592170e-02,  -8.95535074e-03,
          2.77940232e-02,   4.58887029e-02,   5.29680528e-02,
          2.08127679e-01,   6.02186572e-03,   7.00138869e-02,
          4.31895421e-02,  -1.28679304e-01,   2.97812678e-02,
          1.07393905e-01,   3.84772811e-02,   3.36257193e-01,
          6.43456552e-01,   1.74618510e-01,  -4.75548032e-02,
          7.32825596e-03,  -1.71824615e-02,   2.62794995e-02,
         -2.99408479e-01,  -1.19654383e-01,  -1.10834749e-01,
          5.07655341e-01,   1.76987498e-01,  -1.66985807e-01,
          2.00548444e-01,  -1.59175110e-02,   4.08332243e-02,
          3.13821602e-02,   1.04847172e-01,   6.00306275e-01,
         -6.65761701e-02,  -1.87803025e-02,   1.37721538e-01,
         -2.84296252e-01,  -2.91011404e-01,   4.36957209e-02,
          2.84119142e-01,   2.13847966e-01,  -4.25807079e-02,
          2.84196754e-02,  -1.52905349e-01,  -2.39862666e-01,
         -1.70804852e-01,  -8.95885637e-02,  -4.34246954e-01,
          1.15358873e-01,  -2.08500330e-01,  -4.93837438e-02,
         -4.19294003e-02,   8.20492505e-02,  -2.61506668e-01,
         -1.21765671e-01,  -1.22107124e-01,  -2.56384387e-01,
         -3.11452645e-01,
          1.81845656e-02,   5.91543714e-03,  -7.69078905e-02,
          1.03625619e-01,  -1.22375511e-01,  -4.22383139e-01,
         -2.01728790e-02,   2.90266499e-01,  -4.05802464e-03,
         -2.97030994e-02,  -8.60405765e-02,   4.60452596e-02,
         -5.15659931e-02,   1.33627565e-01,   1.70571026e-01,
         -2.20138147e-02,  -4.89868686e-02,  -1.85369816e-01,
         -1.29262590e-02,  -6.24998489e-02,  -2.62738448e-01,
          1.65678648e-01,  -1.33865028e-02,   1.12567203e-01,
         -2.37530216e-01,   1.41910824e-01,   1.89658948e-01,
         -2.08163660e-01,  -1.96030303e-01,  -1.24486572e-01,
          5.11530224e-01,   2.17436326e-02,  -2.06030485e-01,
          2.19189860e-01,   1.08358778e-01,  -1.95321954e-02,
          1.07889806e-01,   3.75357047e-01,   5.13713136e-01,
          9.70568664e-02,  -1.23753393e-01,   1.45225166e-01,
          2.33610801e-01,   3.96583786e-01,   1.16999857e-01,
          1.03268323e-01,   3.45511558e-01,   6.73478171e-02,
          1.25666236e-01,  -3.04981429e-02,   4.25916905e-02,
          1.42976460e-01,  -3.11540714e-01,  -1.91426931e-01,
         -1.88218090e-01,  -2.12619205e-01,   7.75651251e-02,
         -3.11512289e-03,   6.69326958e-02,  -2.67379905e-01,
         -3.21525519e-01,  -2.13919710e-01,  -4.15392861e-01,
         -4.10062363e-02,
          2.68897146e-01,  -3.13370615e-02,   4.82993600e-02,
          7.76900232e-02,   1.22031139e-01,   1.67862548e-01,
          1.41244130e-01,   1.60923841e-01,  -1.12240368e-01,
          2.90182279e-01,   3.36138542e-01,   7.38460059e-02,
          2.67147852e-01,  -1.54040937e-01,   1.03325681e-01,
          2.22184359e-01,  -1.92970859e-01,   7.21562367e-02,
         -2.92999863e-01,  -5.71022673e-01,   2.23265695e-01,
         -1.66452745e-01,   2.58582927e-01,  -2.08942730e-02,
         -8.55074052e-03,  -2.75748991e-01,  -6.06916582e-01,
         -5.14287484e-01,  -9.83853564e-02,  -1.59063024e-01,
         -4.46512642e-03,   1.59794946e-01,  -1.41235254e-01,
         -2.23984226e-01,   1.59381949e-01,  -9.56691110e-02,
          3.12864357e-01,   1.14489164e-01,  -1.88847867e-01,
          7.68300756e-02,  -1.72271663e-01,  -2.75422436e-02,
         -1.67196897e-01,   1.29050465e-01,  -1.73996770e-01,
         -2.96384308e-01,  -6.55328211e-02,  -1.84912965e-01,
         -6.19991669e-02,   2.38605639e-01,   1.39550041e-01,
          2.06238154e-01,   5.11283664e-02,  -2.17155078e-02,
          1.45740509e-01,  -1.26816449e-01,  -7.31768868e-02,
         -3.88887527e-02,   1.93989944e-01,   8.46663901e-02,
         -2.25296144e-01,   1.97269713e-01,   1.66291786e-01,
          7.69088735e-02,
         -8.53618809e-02,  -7.68266542e-03,   1.98711979e-01,
          2.42724885e-01,   1.95066574e-03,   2.28443910e-01,
          1.20565629e-01,   1.90800786e-01,  -1.27190451e-01,
          1.03095234e-01,   9.86861304e-02,   1.21236172e-01,
          1.34248784e-01,   1.36288798e-01,  -1.96299215e-02,
          4.05047368e-02,  -9.97442659e-02,  -5.78442231e-02,
         -2.79993950e-02,  -7.32152961e-02,   1.22759414e-01,
          1.47614675e-01,   2.49227301e-02,   1.75443320e-01,
         -2.04270495e-02,  -7.82328662e-02,  -1.09411101e-01,
          1.60700094e-01,   3.71883309e-01,   1.30772408e-01,
         -8.42440585e-02,   7.78832786e-03,   6.04637355e-02,
         -2.42142083e-01,  -2.79621036e-01,   1.56787025e-01,
          9.42444419e-02,  -1.89574928e-01,  -2.98411584e-01,
         -7.42368693e-02,   1.13740211e-01,  -1.97525068e-01,
         -2.76851132e-01,  -8.61112931e-02,  -4.83440511e-02,
         -9.75590683e-02,  -2.33963133e-01,  -9.71880831e-02,
          8.68219779e-02,   1.12203877e-01,  -1.92193936e-01,
         -6.01770696e-02,  -3.63624658e-02,  -4.39307146e-02,
          2.92331151e-02,  -3.93698701e-02,  -2.70384454e-03,
          1.48434335e-01,   4.51289040e-02,   1.75618100e-01,
         -2.24197915e-01,   4.11285476e-02,   9.00559160e-02,
         -2.07995857e-02,
         -1.37456156e-01,  -1.22762136e-01,   1.73215046e-01,
          2.06165699e-01,   4.08005186e-02,  -6.31490547e-02,
          8.32945886e-02,   8.19066154e-02,  -2.12892136e-02,
         -9.91400553e-02,   1.37141045e-02,   3.45212678e-02,
          2.37513964e-02,  -5.79025508e-02,   2.19541545e-02,
         -5.25370565e-02,  -1.98668435e-02,   1.08719876e-01,
          1.20945868e-01,  -8.21542678e-03,   1.36154526e-01,
         -8.89794964e-02,  -8.63597798e-02,   3.55089153e-02,
          4.19081823e-03,   2.82758873e-02,   1.96049815e-01,
          4.30706220e-02,   9.28328414e-02,  -5.97385977e-02,
          1.61753672e-01,   7.03304476e-02,   1.04802906e-01,
         -1.02039638e-01,   2.40611634e-01,   7.76615762e-02,
          1.14612644e-01,   6.13900471e-02,  -1.21531278e-02,
         -3.38158687e-02,   6.56409472e-02,  -8.00985040e-02,
          7.00189071e-02,   4.96053437e-02,  -4.30958376e-02,
         -4.11482338e-02,  -1.47973387e-03,  -1.87673516e-02,
         -1.16640855e-01,  -5.91543318e-02,  -3.91298384e-03,
          1.81499774e-02,   2.30935767e-02,   8.14019027e-02,
          1.36974154e-01,  -6.69384608e-02,  -4.93546223e-02,
         -1.01292335e-02,  -7.95529780e-02,   3.27345217e-02,
          2.72705866e-01,  -1.50593177e-01,   9.21088053e-02,
          6.77009262e-02,
         -6.97305522e-02,  -1.33995096e-01,   3.14063704e-01,
          1.82772063e-01,   3.23927398e-01,   2.36145816e-01,
          5.00376912e-01,  -1.49874772e-01,  -1.54608679e-01,
          1.77581051e-01,   3.20065155e-01,   3.73077023e-01,
          4.46601251e-01,  -2.21219226e-01,   1.41335434e-01,
         -1.75109167e-01,   4.94982823e-02,   3.41944237e-02,
         -2.88037209e-01,  -1.69964037e-01,   6.44461156e-04,
          1.45419085e-01,  -6.13460410e-02,   4.66377135e-02,
         -2.02963051e-02,  -4.68163951e-02,   7.69065418e-02,
         -2.29906527e-01,  -7.85704297e-02,   1.04276464e-01,
         -1.10555411e-01,   1.52921140e-01,   1.18177470e-02,
          1.40895923e-01,   1.96952416e-01,  -1.05039625e-01,
         -4.36752544e-01,  -1.36914521e-01,   3.78131220e-01,
         -4.41405401e-02,   2.70636552e-02,   1.25565140e-01,
         -6.59495773e-01,  -5.50906693e-01,  -2.49632782e-01,
         -5.14857911e-02,   2.83484477e-02,   1.85977276e-02,
         -5.12690079e-02,   7.13976842e-02,  -1.15837207e-01,
          2.70331622e-01,  -9.82277100e-02,  -7.12339861e-02,
          2.06206770e-01,  -3.97414014e-02,   1.59309068e-01,
         -1.05034743e-01,   3.29154371e-01,  -2.92574595e-02,
         -2.15148487e-01,  -3.22208730e-02,   2.11846356e-01,
         -1.53640866e-01 ,
         -2.78279422e-02,   3.23949437e-02,   2.20738918e-01,
          8.32662778e-02,   2.99166912e-02,  -1.75618448e-01,
          1.18290369e-01,  -5.16931013e-02,  -8.03885778e-02,
         -8.74104535e-02,  -2.70099892e-01,   1.37337760e-02,
         -8.07928073e-02,  -3.82162358e-01,  -4.66787286e-02,
         -1.51937055e-02,   7.02146475e-02,   4.33703086e-02,
          3.52146184e-01,   1.35999079e-01,  -3.17134268e-01,
         -6.91425548e-03,  -1.21715788e-01,   1.01180021e-01,
          8.45614363e-02,   1.38273820e-01,   2.66562621e-01,
         -1.17076059e-01,  -1.30283717e-01,   2.07345158e-01,
          3.74638264e-01,  -8.28857778e-02,   2.82707465e-01,
         -2.04681763e-02,   3.43933000e-01,   8.99938687e-02,
         -4.80756521e-01,   4.68268249e-02,   3.01529910e-01,
         -7.71885242e-02,   2.04810459e-01,   8.02154140e-02,
         -6.87182848e-02,  -9.02423084e-02,  -4.09561351e-02,
          4.19224138e-01,   4.93732433e-01,   1.58063849e-01,
         -2.10245836e-02,   2.39989922e-01,  -2.02460398e-01,
         -9.19494028e-02,  -1.30247830e-02,   4.57367639e-03,
         -3.23372349e-02,   5.49280558e-02,  -2.21644721e-02,
          1.30252630e-01,   7.27319021e-02,  -8.91177644e-02,
          8.24139105e-02,  -1.23388575e-01,  -4.34714688e-02,
         -2.72841525e-01 ,
         -1.56217719e-01,  -2.57022498e-02,   2.70371868e-01,
         -7.13051549e-02,  -3.03416458e-01,   4.42208132e-01,
          2.04149986e-02,  -7.21381671e-02,   1.34595594e-01,
          1.56880620e-01,  -1.47439170e-01,  -9.88521059e-02,
         -3.89982043e-02,  -7.78930653e-02,   9.79005249e-03,
          7.17103646e-03,  -1.27884472e-01,   2.94066276e-01,
          2.12230690e-01,  -6.05550014e-02,   3.91223098e-02,
         -8.38820227e-02,   6.69227427e-02,   1.78578332e-01,
         -8.74388057e-02,   1.08892396e-01,   1.95742797e-01,
          2.27715473e-01,   4.64171077e-01,  -2.36328920e-02,
         -5.54437964e-01,  -1.06411200e-01,   4.05132594e-02,
         -1.22054806e-01,  -1.84569250e-01,  -1.33556373e-01,
          2.45255487e-01,  -1.85945332e-01,  -3.94790433e-01,
         -3.17904697e-01,   1.23716792e-01,  -1.18329662e-01,
         -4.15653886e-02,  -7.18820556e-02,  -2.57269342e-01,
         -1.18923966e-01,  -2.07074767e-01,   3.37343577e-02,
         -1.13256659e-01,  -8.45953201e-05,  -1.17745225e-01,
          2.19457269e-02,   2.43745278e-01,   2.40642423e-01,
         -2.39448336e-01,  -1.34862442e-02,   1.31390961e-01,
          1.26286369e-02,   7.78965935e-03,   1.27743315e-02,
          1.10869689e-02,  -5.46884024e-02,   3.74444886e-01,
         -3.86792190e-02 ,
         -1.73632038e-02,  -8.03912865e-02,   2.31771057e-01,
          6.86081195e-02,   1.51557011e-01,  -1.26792878e-01,
          1.04225381e-01,  -1.00780396e-01,   2.28305749e-02,
          9.87883125e-02,   2.35430900e-01,   1.68023126e-01,
         -8.58165515e-02,   1.07138262e-01,  -1.38891173e-01,
         -1.11163832e-01,  -1.10368664e-01,   3.43428243e-02,
          2.32740057e-01,  -8.17137957e-02,  -2.70112650e-01,
          3.52092250e-01,  -8.01006236e-02,  -9.89785609e-02,
         -4.43421389e-02,  -1.05357952e-01,   4.12508181e-01,
          4.33473998e-01,  -1.16933182e-01,   3.00401188e-01,
         -2.45958529e-01,   1.11518463e-02,   6.02462911e-02,
         -1.84413944e-01,  -8.29711341e-02,   1.09583299e-01,
         -6.03541424e-01,  -4.26934632e-01,  -1.20597374e-01,
         -2.64225774e-02,   4.20935831e-02,  -6.42317452e-02,
         -7.49585845e-02,  -3.03901893e-01,  -1.82999264e-01,
          1.83687070e-01,   1.69452048e-01,   9.04131217e-02,
         -1.90118689e-02,  -5.52502529e-02,   5.30132708e-02,
         -4.91058173e-01,   2.87351143e-02,  -2.35706716e-01,
          2.94518985e-02,   1.36263833e-01,  -4.89569294e-02,
         -1.43049527e-01,   9.54814646e-02,  -8.02066993e-03,
         -1.35450169e-01,  -3.22888903e-01,  -1.05511976e-01,
         -1.76763694e-01 ,
         -9.81406629e-02,  -1.28321308e-01,  -1.10683300e-01,
          4.22143303e-01,   1.02788784e-01,   8.39932919e-02,
         -1.23118574e-01,  -1.69367393e-02,   7.85516727e-02,
          3.78369057e-02,   9.65863882e-02,   1.97653334e-01,
          5.18000869e-01,   3.34059628e-02,   9.26603339e-02,
         -5.23655192e-02,  -9.04593457e-02,  -3.99995864e-01,
         -6.24932030e-01,  -6.69715173e-02,   3.70866346e-01,
         -1.89105140e-01,   1.96801659e-01,  -1.10714190e-02,
         -1.52809063e-01,   1.78072111e-02,  -2.80354286e-01,
         -4.55758868e-01,   1.97168892e-02,  -1.56549201e-01,
          9.45720096e-03,   5.71033602e-02,   1.20025093e-01,
         -2.08031787e-01,  -7.63779577e-02,  -2.01109421e-01,
          1.56664038e-01,   2.28774519e-01,  -2.15379936e-01,
          1.47095554e-01,   1.99002894e-02,  -3.35876761e-01,
         -2.39045426e-01,   9.91814761e-02,  -8.37892184e-02,
         -1.45999409e-01,  -2.36999385e-01,  -7.63355530e-02,
          3.14665773e-02,   2.45978048e-02,  -2.56797543e-01,
          8.63445884e-02,   3.32044548e-01,  -4.49474786e-02,
          1.54169119e-01,   1.08319081e-01,   6.26498765e-03,
          6.18010186e-02,   8.24114349e-02,  -7.14976107e-02,
         -3.09790023e-01,   3.99727835e-01,   4.13112166e-01,
          1.50625531e-01 ,
          9.01082342e-03,   1.28913490e-02,  -2.09028795e-01,
         -4.04287521e-02,  -1.40780109e-01,   2.70451939e-02,
         -1.38827334e-01,  -1.61352751e-01,  -1.28899915e-01,
         -6.55771608e-02,  -1.78411192e-01,   6.94079450e-02,
         -2.08110908e-01,   1.60083629e-01,   4.64170455e-02,
         -4.77015674e-02,   1.16640157e-01,  -1.34879878e-02,
         -8.22604549e-02,   1.39945104e-01,   3.44106152e-01,
         -1.97402092e-01,   2.30201231e-01,  -6.94237210e-02,
          1.20933963e-01,  -8.85313555e-02,  -3.77725326e-01,
          3.61930808e-02,   3.59886694e-01,  -2.85324451e-02,
         -3.05578577e-01,  -1.24214839e-01,  -4.99354230e-02,
         -4.91129517e-02,  -1.28071280e-01,   3.56979190e-01,
         -3.46354315e-02,  -2.81375497e-01,  -2.67364246e-01,
         -7.40661342e-03,   1.36223762e-03,  -1.58585709e-02,
          2.06663937e-01,  -1.65742057e-01,   1.97247196e-03,
          8.50407203e-02,  -7.58736082e-02,   1.06305499e-01,
         -2.91804419e-01,  -4.68004066e-02,   2.81564889e-01,
         -1.47025602e-01,   1.51455155e-02,   1.89419736e-01,
          3.72738529e-01,   5.17698738e-02,   8.23899572e-02,
          3.44001411e-02,  -3.11978935e-01,   1.03282988e-01,
          2.23598054e-01,   2.44753245e-01,   3.58237065e-01,
          1.51973087e-01 ,
         -6.55287425e-02,   1.01649035e-01,  -2.86909760e-01,
          3.23519739e-01,  -2.44184487e-01,  -2.92022144e-01,
         -1.04296290e-01,   1.29817421e-01,  -2.26817981e-02,
         -5.32233176e-02,  -5.89849240e-02,   1.12862684e-02,
         -7.44874925e-02,   1.16705177e-01,   9.89270632e-02,
          1.77423279e-01,   9.30761167e-02,   1.10265868e-01,
         -2.14518427e-01,   2.80984741e-01,   5.12995002e-01,
          5.42145985e-01,   1.98366251e-01,   7.60978001e-02,
         -1.44789526e-02,  -1.44497276e-01,   2.16577414e-01,
          3.41667515e-01,  -5.70682695e-02,   1.30286661e-01,
          3.68341115e-01,   3.77722727e-02,   2.03187263e-02,
          8.82098506e-02,  -1.64377182e-01,   2.38241501e-01,
         -3.85836081e-02,   1.65106272e-01,  -6.79664668e-02,
         -1.29643996e-01,  -3.20066616e-02,   3.42552893e-01,
          3.07603024e-03,   3.80819066e-03,   2.37327332e-01,
          1.05431601e-01,  -5.37899255e-02,  -7.11782649e-02,
         -1.35120067e-01,  -1.56528951e-02,   5.01075034e-02,
         -3.74334691e-01,  -4.02595228e-01,  -2.08100233e-01,
          8.20453313e-02,   8.94405526e-02,   6.21118871e-02,
         -9.44685246e-02,  -3.78970635e-01,  -1.62397748e-01,
          1.17153222e-01,  -4.04099893e-01,  -1.63304400e-01,
          5.03108404e-02 ,
         -7.75108508e-02,   4.42123286e-02,   8.52457831e-02,
         -8.77349756e-02,   8.82608780e-02,   1.81999627e-02,
         -1.21661686e-01,  -3.97452880e-02,  -3.66148974e-02,
          2.55910113e-02,   1.55026159e-01,   7.03768357e-02,
         -3.13183297e-01,   2.77964278e-01,   1.25143621e-01,
         -1.26349347e-01,  -1.36006003e-02,   1.56619687e-01,
         -6.68011942e-02,  -2.25808153e-01,  -3.08252826e-01,
         -4.73977337e-03,   3.70813790e-02,  -2.58420124e-02,
          2.49819767e-02,   1.20965450e-01,  -2.13249599e-01,
          4.93429027e-02,  -3.39880707e-02,   6.59081157e-02,
         -3.46854353e-01,  -1.21945540e-02,  -2.86412312e-02,
         -3.11835378e-02,  -8.24321393e-02,   2.42368630e-01,
         -2.62131212e-01,  -4.54760795e-01,  -2.02275165e-01,
         -1.77598490e-02,  -1.96801886e-02,  -2.93020175e-01,
         -1.03206375e-01,  -2.34848402e-01,  -3.11419674e-01,
          6.60529803e-02,   1.84739883e-01,  -2.81763287e-02,
          7.81640111e-02,   1.18283304e-01,   3.48425614e-01,
          9.32188221e-02,  -9.28674251e-03,   4.13701203e-01,
          4.36004958e-01,   1.49386371e-01,  -5.40415604e-02,
          7.84711479e-02,  -1.34520510e-02,   3.94779795e-01,
          4.43084858e-01,   3.24859354e-02,   1.00616374e-01,
         -2.53241781e-02 ,
          3.39084623e-02,  -4.53669910e-02,  -4.00725349e-02,
         -2.58367254e-01,  -4.41562612e-01,   2.47387006e-01,
          6.09718952e-02,   8.15092740e-02,   2.86071773e-02,
         -3.16849520e-01,  -1.34206257e-01,  -2.19041836e-02,
         -1.15187366e-01,  -3.56140316e-01,   2.02071241e-01,
          2.33959792e-02,  -1.77402007e-01,   4.13264412e-02,
         -9.63520214e-02,   3.67399710e-01,   3.32844502e-01,
         -2.18719889e-04,   2.11850301e-01,  -4.17546379e-02,
          7.41444299e-02,   5.40523716e-02,  -3.97844638e-02,
          3.30735553e-02,   8.73836245e-02,   2.36641613e-01,
          2.21736173e-01,   2.00683749e-01,   8.10924712e-02,
          1.17209501e-04,   6.64397572e-02,   1.47211880e-01,
          3.21546229e-01,   2.57693546e-01,   6.39435554e-02,
         -1.77917926e-02,  -5.51511626e-02,   2.01431235e-01,
          1.07276929e-01,   3.71563347e-01,   3.57523780e-01,
         -1.08308870e-01,  -3.92158685e-01,   4.94238903e-03,
         -1.64626030e-02,   1.99296762e-02,   2.85672847e-02,
         -2.12833861e-01,  -6.85585643e-02,  -3.33062318e-01,
         -4.43600432e-01,   1.39811987e-01,   6.92781438e-02,
          6.33782505e-02,  -8.17702603e-03,  -3.21564108e-01,
         -2.44103319e-01,  -5.98542105e-02,   3.79875893e-01,
          3.13903928e-01 ,
          2.75005881e-03,  -2.87844593e-02,  -8.30034471e-02,
         -1.22670962e-04,   1.56451949e-01,   2.42711767e-02,
          7.30057899e-02,  -2.97779635e-02,   1.77850805e-01,
         -8.55098224e-02,   7.62014090e-02,  -3.86473653e-02,
          1.83052173e-01,  -5.33318317e-02,  -2.41616240e-02,
         -3.00805580e-02,  -2.88358635e-03,   1.11539401e-01,
         -1.41443071e-02,   1.43387681e-01,   1.16802748e-01,
          6.88987779e-02,  -9.05903039e-03,  -1.07475671e-01,
          1.51434690e-02,  -4.39828683e-02,   2.63894227e-01,
         -8.94988265e-02,   1.90966896e-01,  -4.37484437e-02,
         -9.57078325e-02,   1.92726544e-01,  -4.52027455e-02,
         -1.27319318e-01,  -1.84921643e-03,  -6.14756332e-02,
          7.32227811e-03,   6.92652706e-02,   7.71366951e-02,
         -1.27735614e-01,   1.61891856e-01,  -2.92019892e-02,
          4.61363876e-02,  -2.82991230e-02,  -2.24570724e-02,
         -1.07644602e-01,  -7.51069098e-02,  -2.45950275e-01,
         -2.99982074e-02,  -7.78958692e-02,  -2.44316001e-01,
          1.81656037e-01,   1.71807943e-01,   1.56224098e-01,
          7.77493481e-03,   8.51886476e-02,  -1.29863147e-03,
         -1.36882439e-01,   2.17070582e-01,   1.80250121e-02,
          5.69463576e-02,  -5.17174861e-02,  -9.84837706e-03,
         -1.79069506e-01 ,
         -4.28420311e-02,  -8.89272298e-02,   9.15908779e-02,
         -7.86806542e-02,  -1.33875811e-01,   1.05978538e-01,
          1.28212668e-01,  -6.60986789e-03,  -8.32560479e-02,
         -2.78454719e-02,  -1.32017879e-02,   7.81913016e-02,
         -6.10125051e-02,   2.41885785e-01,  -1.12300943e-02,
          6.51002624e-02,  -5.71831161e-02,   1.67874812e-01,
         -1.16589510e-01,   2.57030358e-01,   1.92533754e-01,
          4.05339423e-01,   1.12431473e-01,  -1.04582318e-02,
         -1.11936944e-01,   2.14601474e-01,   4.72798787e-01,
          4.55157314e-01,   1.27293841e-01,  -1.56884745e-01,
          2.91734228e-01,   4.72102750e-02,   1.54436067e-01,
          1.13214603e-01,   4.96252251e-02,  -3.21312594e-02,
          5.11021141e-03,  -8.47048642e-02,   1.08555129e-01,
         -4.15870833e-02,  -2.89577974e-02,   9.61560191e-02,
         -3.99329392e-01,  -3.36637659e-01,   1.25360655e-01,
          3.14997652e-01,  -5.74016550e-02,   5.42077624e-02,
          8.46088484e-03,  -7.27975286e-02,   7.46034170e-02,
         -4.28915825e-01,   1.02234961e-02,  -2.58776312e-01,
         -1.45078277e-01,   6.73497302e-02,   9.44709736e-02,
         -1.10623193e-01,  -6.07720906e-03,   1.91065572e-01,
          7.11354196e-02,  -3.20559863e-01,  -1.99587197e-01,
         -9.10388095e-02 ,
         -1.45258395e-01,   1.88736694e-02,   2.90194859e-01,
         -4.27899271e-01,  -2.76908574e-01,   1.27614067e-01,
         -8.25900129e-02,  -1.46019666e-01,   1.20738779e-01,
         -1.87963011e-01,  -1.83658814e-01,  -8.97448811e-02,
         -2.76484283e-01,  -1.24772676e-02,  -3.15572930e-01,
         -3.58343454e-02,   5.76823642e-02,  -1.00484757e-01,
          2.68884020e-01,   2.82843287e-01,  -3.63593849e-02,
         -4.71304737e-01,  -8.42897551e-02,   8.04106765e-02,
         -1.25002090e-02,   4.66852488e-01,   2.76573454e-01,
          4.47533685e-02,  -2.46746129e-01,  -1.09583007e-02,
          1.40128914e-01,  -1.19006618e-02,   2.30443071e-02,
          2.56668899e-01,   1.65219688e-01,  -3.43556528e-01,
          7.69334151e-02,  -3.17621209e-01,  -4.21594064e-02,
         -1.44877143e-01,  -1.49460126e-01,  -4.37473172e-02,
          4.78285940e-01,   5.75618272e-01,   1.43438865e-01,
         -1.72787035e-01,  -3.46169131e-02,  -7.25432874e-02,
          1.98139878e-01,  -9.35944857e-02,   1.06601302e-01,
          1.08326943e-01,   4.39767029e-01,   4.86866625e-01,
         -7.35294076e-02,   5.19032088e-02,   1.19793824e-01,
          1.38044082e-01,  -9.10678992e-02,   2.46445669e-01,
          1.09098607e-01,   1.96261161e-01,   3.74516058e-01,
          2.35753361e-01 ,
         -8.24162760e-02,  -2.53655560e-01,  -2.84495316e-01,
         -1.29965764e-01,   8.21412509e-02,  -4.12538123e-01,
         -1.64382517e-01,   6.52331036e-04,   5.77750264e-02,
         -1.92984050e-01,   2.40595209e-01,   1.48509100e-01,
         -9.62271524e-02,   8.85216547e-02,   4.61647008e-01,
         -1.15262575e-01,   1.56024687e-01,  -1.71163651e-01,
          2.23024597e-01,  -3.02857046e-01,  -3.89140672e-01,
          7.48800585e-01,   6.90697290e-02,  -4.62626075e-02,
          9.28089634e-03,  -8.66957095e-02,  -1.73605485e-01,
          2.77014257e-01,   2.24990906e-02,  -8.33150710e-02,
         -1.85263513e-01,  -1.66073933e-01,  -2.92282532e-02,
         -3.59714032e-01,  -2.55880061e-01,   2.62778265e-01,
         -2.79107607e-01,  -2.31939900e-01,  -2.58123272e-01,
          2.72675077e-02,  -1.10193371e-01,  -9.78963021e-02,
          4.15572005e-01,  -2.54299704e-01,  -1.72666348e-01,
          1.88682793e-01,   3.51743902e-01,   2.32238501e-01,
          2.06111218e-02,  -1.47476945e-01,   1.22654633e-01,
         -7.11061377e-02,  -1.35784507e-01,   1.32750648e-01,
          1.51389229e-01,   3.27588822e-02,   8.96929551e-02,
         -1.90259796e-02,  -3.21434426e-01,   2.52828879e-03,
          1.35943285e-01,  -2.56133565e-01,   1.12070679e-01,
         -2.69430482e-01
};


double param_weights1 [20*20] =
{
	  6.37315620e-01,   9.16323886e-01,   3.73561863e-01,
          1.27998453e+00,  -3.72553121e-01,  -8.13684930e-01,
          4.12622234e-02,  -5.66234624e-01,   4.58655759e-01,
         -1.04862995e+00,  -4.31296640e-01,  -3.68497789e-01,
         -5.37695523e-01,   3.16779287e-01,  -3.64877379e-01,
          1.64950600e-01,   5.00097312e-02,  -3.76497805e-01,
          9.28525900e-02,   2.05149462e-01 ,
          6.36115836e-01,  -3.82872923e-01,  -5.20321516e-01,
         -2.85415013e-01,   6.86904451e-01,   1.32971694e-01,
          3.43678154e-05,  -4.50093881e-01,  -9.27465046e-01,
          5.57487044e-02,  -8.58015508e-01,   7.10162954e-01,
          1.06151448e+00,   2.97300109e-01,   6.04481508e-01,
         -7.57970416e-02,   1.18366529e-01,  -8.41273635e-01,
         -2.82272054e-01,   2.99106518e-01 ,
         -7.15127042e-01,  -8.98301070e-01,   4.82265518e-02,
         -6.39291682e-01,   8.36570280e-01,   3.95112486e-01,
         -1.19194474e-01,   4.78464797e-01,   1.37341924e-02,
          4.22123987e-01,   7.67642178e-02,   2.05558537e-01,
          5.82023148e-01,  -9.50189714e-02,   4.19436977e-01,
         -4.87657870e-01,   6.67393806e-02,  -3.87997414e-01,
         -8.58286219e-01,   3.80131175e-01 ,
          1.15026072e+00,   1.45266059e-01,  -1.16393190e+00,
         -3.63600637e-01,  -6.85734201e-01,   2.74802319e-01,
          3.04136023e-01,  -1.67984605e+00,  -2.09831063e-01,
          8.77341224e-01,  -7.44607120e-01,  -3.79948048e-01,
          3.84644596e-01,   6.53262106e-02,  -2.03528310e-01,
          6.28340544e-01,   1.05578862e-01,  -1.43866102e-01,
          1.23790499e+00,  -7.60483526e-01 ,
          5.12758501e-01,   1.12875459e+00,   5.85071485e-01,
          1.52713882e+00,  -1.41155854e-01,  -1.22723415e+00,
          1.04858735e-01,  -2.85379197e-01,   5.99412612e-01,
         -1.05500337e+00,  -6.83922363e-01,   2.27730742e-01,
         -5.36933895e-01,   2.42453553e-01,  -5.27579166e-01,
          6.80057981e-01,  -5.91201492e-02,  -9.34819644e-02,
         -1.60968216e-01,  -1.49936244e-02 ,
          1.35707364e-01,  -3.32096894e-01,  -1.37495103e-01,
         -4.14214302e-01,  -9.89877693e-02,  -4.96143350e-01,
          1.15545048e-01,   3.19371979e-01,   7.19315802e-01,
         -2.30636269e-01,   8.16728111e-01,  -7.21154304e-01,
          1.55441036e-01,  -1.83985403e-01,   1.32108599e+00,
         -1.31383432e+00,   5.45640847e-02,  -3.43043555e-01,
          7.88697906e-02,   1.24722877e+00 ,
          1.69450755e-01,   8.01680460e-01,   5.33769286e-01,
          1.05047032e+00,  -1.63506678e-01,  -5.44302253e-01,
         -1.34519584e-01,  -2.00587001e-01,   7.88383157e-02,
         -9.02161699e-01,   1.15947478e-01,  -2.75851891e-01,
         -3.55853840e-01,   8.20110323e-01,  -7.58542782e-01,
          6.78280795e-01,  -2.19765339e-01,   4.58382524e-01,
         -1.88031230e-01,   3.95346302e-02 ,
          3.11636947e-01,  -5.25223222e-01,  -4.58945579e-02,
         -2.34710892e-01,  -3.26969060e-01,   1.70474102e-01,
         -2.25648123e-01,  -1.02458723e-02,  -3.87193709e-01,
         -3.79511353e-01,   3.30237175e-01,  -6.75709187e-02,
          1.13033437e+00,   8.40580297e-01,   5.48019375e-01,
         -4.56588373e-01,  -8.14744553e-02,  -3.99083066e-01,
         -9.57317349e-01,   1.41268137e+00 ,
          5.91588155e-01,   6.61607251e-01,  -8.42373166e-01,
          8.92473107e-02,   2.02490584e-02,  -4.70274758e-01,
          1.81452310e-01,  -1.41220811e-01,   5.44713643e-01,
          5.01374455e-02,   1.10914067e-01,  -3.70233927e-01,
         -1.71212501e-01,  -1.04924256e+00,   3.24141886e-01,
         -2.04303767e-01,   3.65446755e-01,  -9.95046617e-01,
          1.22969585e+00,  -2.96243019e-01 ,
         -1.28160340e+00,  -1.17279101e-01,   9.59159190e-01,
          1.70689647e-01,   3.08655272e-01,   5.36061319e-03,
         -2.04108920e-02,   1.14616705e+00,  -6.01791581e-02,
         -5.91087352e-01,   9.67289876e-01,  -2.70262441e-01,
         -5.36033943e-01,   3.75408814e-01,   9.62682910e-02,
         -3.82119986e-01,  -2.12512429e-01,   7.69652575e-01,
         -1.10287500e+00,   5.69196013e-01 ,
          8.65032005e-01,  -2.80716529e-01,  -1.28668318e+00,
         -7.98420114e-01,  -1.47496392e-01,   5.32266408e-01,
          2.31413804e-01,  -1.03706983e+00,  -5.66782395e-01,
          1.01903632e+00,  -7.13799769e-01,   1.17162507e-01,
          9.99332734e-01,  -4.43127722e-01,   2.48683719e-01,
          1.08065426e-01,   4.33398534e-02,  -5.05962417e-01,
          9.47733603e-01,  -2.20370940e-01 ,
          1.08395654e-01,  -3.23505860e-01,  -2.60585815e-01,
         -4.12332220e-01,  -9.46599582e-01,  -3.61727767e-02,
         -2.15861376e-02,  -3.32493370e-01,   1.02265344e+00,
         -1.10276890e-01,   1.18703376e+00,  -1.51251235e+00,
         -2.46461879e-01,   2.90055391e-01,   6.48076254e-01,
         -5.80122987e-01,  -2.64732721e-02,  -1.70874475e-01,
          4.69086626e-01,   1.28850644e+00 ,
          3.42813106e-01,  -6.55615019e-02,   2.73222598e-01,
         -2.84390453e-01,  -1.26742345e+00,   9.50731142e-02,
         -3.19352266e-01,  -3.64096550e-01,   3.78282301e-01,
          3.11947859e-01,   7.68572889e-01,  -8.58120979e-01,
         -8.25528090e-01,   5.82098519e-01,  -2.44042374e-01,
          2.97497914e-01,  -1.45349303e-02,   1.08081019e+00,
          4.09201139e-01,   1.78794608e-02 ,
          1.50582549e-01,   6.62215030e-01,   5.14614252e-01,
          5.06793232e-01,  -2.16678250e-01,   6.32910603e-02,
         -2.26819495e-01,  -4.32236512e-01,  -3.66275057e-01,
         -2.17692650e-01,  -8.62112118e-01,   3.85083326e-01,
         -2.80718490e-01,   6.05702544e-01,  -1.49932061e+00,
          1.26554701e+00,   1.64683375e-02,   3.71594406e-01,
         -1.28274220e-01,  -1.10403411e+00 ,
         -5.68817475e-01,  -1.95193725e-01,   7.70675248e-01,
         -2.40469079e-01,  -6.10260939e-01,   6.30107823e-01,
         -2.31514402e-02,   3.36050670e-01,  -3.86606335e-01,
          4.39966314e-01,   9.20212010e-01,  -3.43987855e-01,
         -7.51090014e-01,   1.02880957e+00,  -3.72620514e-01,
          3.62398166e-01,  -3.07355429e-02,   1.89560869e+00,
         -5.77986439e-01,  -3.11819754e-02 ,
          6.23969720e-03,   4.97612382e-01,  -5.70048627e-01,
          4.29753139e-02,   4.59693914e-01,  -1.00405258e+00,
         -4.80402612e-03,   6.89488583e-01,   5.73685968e-01,
          4.09489768e-02,   4.04284808e-01,  -5.26651102e-01,
         -6.80232303e-01,  -1.77140886e+00,   8.79588019e-01,
         -1.12952736e+00,   1.87296536e-02,  -6.76666587e-01,
          1.55627879e+00,  -9.69421970e-02 ,
         -6.29573285e-01,  -1.56180866e-01,   1.09070553e-01,
          1.16841348e-01,   1.33891185e+00,   4.36002715e-01,
          8.02766232e-02,   7.80138767e-01,  -1.16431346e+00,
          3.61148725e-01,  -9.04755393e-01,   1.39649120e+00,
          5.52549005e-01,  -3.57413031e-01,  -3.74159975e-01,
          2.35029308e-01,  -1.73609027e-01,  -6.00081741e-01,
         -6.06644581e-01,  -9.65086828e-01 ,
         -6.23054355e-01,  -2.99873413e-01,  -6.29053198e-01,
         -5.54529019e-01,   1.02161768e+00,   2.74450760e-01,
          1.44628918e-01,   8.07102539e-01,  -1.61114929e-01,
          8.98531276e-01,  -2.67367985e-01,   6.54958146e-01,
          8.96140052e-02,  -1.25246296e+00,  -3.30656349e-02,
         -5.58078888e-01,   3.97604267e-02,  -2.48555682e-01,
          3.35511096e-01,  -8.90140511e-01 ,
         -1.48885570e+00,  -4.48569333e-01,   4.70536017e-01,
         -3.07593866e-01,   4.64558863e-01,   3.65450675e-01,
         -2.35373705e-01,   1.30160198e+00,   3.78529740e-01,
          9.19200391e-02,   7.75516154e-01,   2.70453645e-02,
         -3.54695953e-01,  -4.98443206e-01,   6.78514493e-02,
         -5.46171576e-01,   3.18965776e-02,   5.09401101e-01,
         -7.83789237e-01,  -1.66352792e-01 ,
         -5.52335489e-01,  -2.90150022e-01,  -3.24251387e-01,
         -5.25843272e-01,   6.51665163e-01,   1.21902563e+00,
          4.32206567e-02,   3.65496154e-01,  -1.01498037e+00,
          8.36955294e-01,  -3.92604864e-01,   9.17891648e-01,
          8.43787840e-01,  -4.93205913e-02,  -4.01696636e-01,
          2.43635799e-01,   8.07215970e-02,  -1.64681221e-01,
         -1.77486260e-01,  -8.02240509e-01
};


double param_weights2[10*20]=
{
	 1.34412807, -0.82226852, -1.04989015, -1.69813255,  1.53435945,
         1.60823365,  0.78258971,  0.03089387,  0.47049943,  1.04534747,
        -1.8938773 ,  0.58324725,  0.69108026, -0.7929045 ,  0.31298141,
         1.33002436, -1.04289866, -0.87899092, -0.04488802, -2.25368689 ,
        -0.28110479,  0.36188807, -0.83808586,  2.0102587 , -0.02786861,
        -2.12852072,  0.15297724, -0.3937845 , -0.06419512, -1.59372908,
         1.75486912, -1.28206829,  0.43596949,  1.59191994,  0.50565317,
        -1.12183134,  0.45510335,  0.17104959, -0.80418011,  1.65524825 ,
        -0.82717912,  1.3911935 ,  0.98542875,  0.55609961, -0.82014883,
        -0.09256961, -1.29469002, -0.18777271,  1.01250098, -1.58742641,
         1.30312701, -0.7073023 , -1.81599078, -0.60264293, -1.96221891,
         1.20241805,  1.82284298,  1.54826456, -0.25672519,  1.11603866 ,
        -1.46263471,  0.98310733,  1.47589302, -1.19726781, -1.20692449,
        -0.0948954 , -1.45623429,  0.29792886, -1.35226641,  0.93998828,
         0.07758347, -1.3650882 , -1.22861478, -0.84468412,  0.8679665 ,
        -0.67615542,  2.01235851,  1.48192064,  1.3397299 ,  1.03451841 ,
         1.78199874, -0.9751606 , -0.96902589,  1.31852092,  1.78492403,
        -0.93087298,  1.21535923, -1.28579458,  0.11045299, -0.38791664,
        -0.57072987, -0.22318052,  1.20566872,  1.88969205,  0.48622168,
        -0.91786348, -1.19532456, -0.92967357, -1.11567256, -1.51199442 ,
        -1.05773445, -1.64554594,  0.09203769, -0.02350812, -1.21926888,
         0.44240364, -0.89903098, -1.81184398,  0.87633941,  0.4263372 ,
         0.02793075,  0.76575097,  0.58317758, -0.78202883,  0.74439268,
         2.43628038, -0.4682463 ,  1.48740516,  1.57496244, -0.00789153 ,
         1.42115007,  0.46685779, -0.376342  ,  0.93653923,  1.30448623,
         1.30584322,  0.07867229,  0.47135576,  1.65386297, -1.36330869,
         0.84071576,  0.85133831, -0.69695361, -0.74904761, -2.5656797 ,
         1.11780722, -0.99525212, -0.4134928 , -1.00703338, -1.32849978 ,
         0.48618417,  0.08563591, -0.02717482, -1.31741533,  1.44388842,
        -1.4505339 ,  1.48456609, -0.15360642, -0.88398272,  1.20541761,
        -1.31257272, -1.70327389, -0.68621344,  1.4554271 ,  0.43856431,
        -1.15896179,  1.73086192, -0.21429483,  0.49827668,  0.89523966 ,
        -0.6221511 ,  0.82610193,  0.00345498,  1.51136941, -1.55793815,
         0.51618411, -0.5245818 ,  1.41890801, -0.23538777, -0.58107642,
         1.57499291,  1.55914352,  0.71946596, -1.09053315,  0.73987981,
        -0.8973249 , -1.30839964, -0.98874859, -1.09403327,  0.22462306 ,
        -0.60061047, -0.74675233,  1.08388359, -1.83707094, -0.71309332,
         0.7795791 ,  0.08293667,  1.28717654, -1.4069274 ,  1.7703603 ,
        -1.49802268,  1.47148875,  0.6750875 , -0.3875659 ,  0.80313714,
        -1.5732403 , -0.82766009, -0.87790958,  1.52229381, -0.26835165
};


double param_bias0[20]=
{
	-0.00996363,  -0.02028021,  -0.02435844,  -0.02641607,  -0.00235901,
        -0.00158163,  -0.00262192,  -0.02357016,  -0.0035216 ,  -0.00035268,
         0.01271656,   0.00120945,   0.01820368,   0.0068516 ,  -0.01369818,
        -0.00408335,  -0.00279786,  -0.01626249,  -0.00871524,  0.01384004
};

double param_bias1[20]=
{
	0.03950823,   0.00213825,  -0.04103731,  -0.14773204,  0.01281718,
       -0.02251411,   0.09511125,   0.19898934,  -0.11053474,  0.09061896,
       -0.11174412,   0.09244669,   0.0506877 ,   0.13459648,  0.03425516,
       -0.01506384,  -0.00443014,  -0.07437929,   0.14427386, -0.00968989
};

double param_bias2[10]=
{
	0.12370593,  -0.04705356, 0.15269719, 0.033918,   -0.08843608,
        -0.00785905,    0.04218334,  -0.0941009 ,  0.09025827,  -0.20531315
};

#endif
